{
  "config": {"n_embd": 16, "n_head": 4, "n_layer": 1, "block_size": 8, "vocab_size": 27},
  "chars": ["<BOS>", "a", "b", "c", "d", "e", "f", "g", "h", "i", "j", "k", "l", "m", "n", "o", "p", "q", "r", "s", "t", "u", "v", "w", "x", "y", "z"],
  "weights": {
    "wte": [
      [0.02823919338072873, 0.016135502914297325, -0.058612707257970256, -0.03738126775737587, -0.12354415565923021, -0.3173477579928237, -0.01941290762533918, -0.03781556795227554, -0.3336102403035756, 0.24266901130311758, 0.005577755767674282, -0.014199851409459296, 0.05281382326916822, 0.09581557476322548, 0.07449923100887945, -0.20884311120673568],
      [0.24808499206704576, 0.008867048904558757, -0.0755383341097481, 0.02089421985493148, -0.07579519593391508, 0.04171783115479498, 0.03946755568114874, -0.003715133005851206, -0.05459731408328274, -0.10932984580370271, 0.16013246031814715, 0.07530681108440061, 0.2143618605267995, -0.018447750759927484, -0.19806022122451564, 0.400986398755303],
      [0.05099557459597538, 0.06606902203002914, 0.10228021012622679, -0.19814153665706136, 0.2946655545686614, -0.06497251434105823, 0.06570814834727452, 0.3214354391602245, -0.02887198431988793, 0.04776749126464795, 0.13402831134768867, -0.0004661787004633548, 0.007130467751131025, -0.07342606173607896, 0.017245741557383492, 0.07976472301714863],
      [-0.021970467383524116, -0.08061285325442594, -0.13451747776481407, -0.09862688248676872, 0.1618332507401909, -0.21555432428490456, 0.12430909391990497, 0.04736875532661636, -0.01671573153913006, 0.1347847467781435, -0.1344065263784121, -0.1154388207648797, -0.05996545778425253, 0.21073450136781396, 0.038436773039262, -0.27309594191622594],
      [-0.20855690260638762, 0.10860698931677906, -0.002398196143451027, 0.010649106466976282, 0.2506360811848419, 0.054157230050863356, 0.0827234086850131, 0.15872243788463564, 0.19881420764781832, 0.15809806328967488, -0.1398061413870961, 0.03383370586148496, -0.10406359156902008, 0.03433045465201278, 0.09485765088131755, -0.07935924675872746],
      [0.07140064552776797, 0.07594361097146148, 0.008583068110793094, -0.07988726816238705, 0.049761463169813926, -0.014931374001392763, 0.004207611910034039, 0.15660499535659125, -0.14069796008745647, -0.18999198030677594, 0.06591647412289162, 0.0749920955874133, 0.13648724708714546, -0.21093715030049065, 0.06756560042425723, 0.3153471390488906],
      [-0.0999475226777581, 0.10849598373618732, -0.011488147469317287, -0.004037255034611072, 0.04074911787154439, -0.0038257173541539386, -0.04311241954443007, 0.06689740005293995, -0.05519096016123607, 0.014315581526212883, -0.06356475216768243, 0.040185469133280825, 0.031495546635143305, -0.06451660707506009, 0.07054714519558133, 0.02061393352007439],
      [-0.1582009619565753, -0.0202755608679149, 0.07767788256087833, -0.10953062782590663, 0.17496087455728584, -0.034295927436589956, 0.13986170912867307, 0.0692827840863815, 0.11512723431377371, 0.1022840632661593, -0.24793762384862883, -0.02049831346149795, -0.1947136516272612, 0.09930735327130698, 0.16524326973140013, -0.04704391459796319],
      [-0.10356306222075409, -0.007085956632557251, 0.018700680673718946, 0.13461253563686848, 0.026010038665892424, 0.007162301153270434, 0.09861658117033267, -0.01009181150235235, 0.09221552296158551, 0.05361894568018886, -0.09141718840597853, -0.05020552908351252, -0.12044961008954552, -0.006000959551362868, 0.027189685155763192, -0.04315699263663119],
      [-0.07562130174913093, 0.17331519271645296, 0.012873117989101658, -0.254735257196654, -0.14223237522248852, -0.26650544853843294, 0.0477064327832165, 0.06257420781329867, -0.24752792421385061, -0.09430552244580588, -0.20849041653410144, 0.2734099545198197, -0.06505967688515099, 0.07019712466710683, 0.07488376808998361, 0.11937753642455941],
      [-0.24698413306689018, -0.038221926546276236, 0.029883813416370846, 0.04427802249708382, 0.08985499747659599, -0.0667085375030755, 0.09287925328844716, 0.05728483217259214, 0.1166954546541013, 0.12203431253723927, -0.20823600505834802, -0.08369215552330508, -0.23600772782379598, 0.07188642413375305, 0.1254092520235807, -0.20822272117088694],
      [-0.32979341718289373, 0.07627411267496954, 0.0868746433559187, 0.04950262232238183, 0.1892594798407342, 0.06721639191852134, 0.1118748202473607, 0.03751975324935351, 0.1428585998015657, 0.17268779689146782, -0.12446179578145866, 0.04736559866947445, -0.11787739139479565, 0.06937064874068416, 0.058630352530240196, -0.03280881317862398],
      [-0.3644003742034101, -0.046046087853023616, -0.1287182868341048, 0.06539283528438056, 0.32760650815620995, 0.0861441167936612, 0.112593637334921, 0.175684502158706, 0.26709792951194433, 0.1616817107775771, -0.018223309654995253, -0.02505857683964065, -0.25305317206654737, -0.022805786373227235, 0.12384796258613612, -0.03901862093610006],
      [-0.20918634213521667, -0.028975484389536524, -0.05526088290336351, 0.12598912982901198, 0.012054920919067303, -0.009419139389725998, 0.09931655282928264, 0.03450996844073097, 0.11769042563259133, 0.24429530633598068, -0.15027757639442793, -0.10530790508313152, -0.14080704204427716, 0.009824395167613263, 0.1647208300754426, -0.08677700924642365],
      [-0.06221262441300568, 0.13227276383940886, 0.009514575758766835, 0.21824962884748664, -0.17913507865696565, 0.07106911155462338, 0.010495349644295653, -0.04890255276979883, 0.019979617476350887, 0.07923890858641387, -0.08948166284074709, 0.037000416719227124, 0.006198829712590865, -0.08333515044280829, 0.03241068008008145, 0.044322273645608236],
      [0.3040663092226341, 0.0948950811251076, 0.11106102896451589, -0.14208165779135065, -0.11884087240835628, -0.16969959675292598, -0.099162098117298, 0.04973020406448137, -0.18328301977291253, -0.3755823654364655, 0.10889395839895886, 0.15055269936741916, 0.10231964373407418, -0.19770077603411867, -0.0729699782305401, 0.3290766721934078],
      [-0.051359091304377734, -0.049874920907698475, 0.12634746140676884, 0.03211227384132067, 0.2651880631428563, -0.09120468799635312, 0.24908575880870884, 0.06761114585122933, 0.09589842403498114, 0.024243267187716338, -0.15518786623062927, -0.07476692575008038, 0.048324953734452905, -0.05224923877579635, -0.08557619370196401, -0.1349110551834948],
      [0.0525236716776932, -0.03255598033457285, 0.03728115542446525, 0.05463798597776235, -0.06989798226059239, 0.04440385175767099, -0.02600024947209813, -0.06628535902274427, 0.0482856776763047, -0.010131784173474158, 0.03120222379731555, -0.04094532537409962, 0.06432095808562178, -0.03229551100200159, -0.03513300324801445, -0.05378643368848757],
      [-0.15596835046017868, 0.01623834784369811, -0.10012583555363667, 0.1192671085138424, 0.10602102317161327, 0.17010897276873457, 0.03064568013857211, 0.07377213198314979, 0.2064520853961621, 0.24304107628298766, 0.06081249332670825, 0.043692415892897074, -0.1564119328124822, -0.13574190823102972, -0.002662636409769459, -0.05799217401356576],
      [-0.04119158211666139, -0.10249725228302256, 0.1785525404961531, -0.0897100518310135, 0.10937209529107944, 0.06423264239398911, 0.09780547771304197, -0.19683973769747057, -0.018256366728546126, -0.0014507421287726226, -0.11145929049536005, 0.024644165858518672, 0.20736791811750385, 0.19068288154166146, -0.18096265550153645, -0.22659238105607182],
      [-0.2553743248629332, 0.1125353475326177, -0.05843358709537186, 0.04720301983728908, 0.2765791825491946, -0.03964072731374503, 0.2401078643168699, 0.10877077972441358, 0.128266509021417, -0.09830618179916353, -0.10884106325085689, -0.07053972096632771, -0.01078172203426027, 0.10937698170798911, -0.08635390211780296, -0.1832740875032257],
      [0.05311096401238965, -0.07155738937561817, 0.064316581671751, -0.22163784715858792, -0.09989415538415237, 0.02647188615483005, 0.033288155498324146, 0.08324835802795483, -0.35849055180953304, 0.036159698327252306, 0.09107436216553337, -0.03310893831105339, 0.08083101520207125, 0.03536286890519287, 0.1310424154577668, 0.2116785588597616],
      [-0.2530165166783846, 0.07712629156421154, -0.09551320020015794, 0.2810618093556676, 0.0974980657185295, 0.011625459079510424, 0.2041421698262913, 0.09816615467343472, 0.2619960523857266, 0.3625655547438595, -0.14207955237174794, -0.13468596852744322, -0.2692746553155206, 0.016943859123044466, 0.1142434373535861, -0.10405553987574749],
      [-0.19382188475264714, 0.09106635037088971, 0.06321121204730829, -0.0921691425238487, 0.08226648893639112, -0.08178572867537133, 0.2242784050904019, 0.12227889550467803, -0.033384919211809916, 0.15161778234095336, -0.2191572934169423, 0.11123396980285054, -0.05688410551453069, 0.027962815914658837, 0.0010134231714728768, -0.14539880905618735],
      [-0.09310760436000323, -0.006612278993867013, -0.006477694316688651, 0.14878987665328994, 0.0031121612254455698, 0.13625230258231574, 0.009174554939543937, -0.03687543377754785, 0.14227460329030914, 0.06225541247526396, -0.010776718203384885, -0.05489232578887285, -0.043737658039980754, -0.010325347890488432, 0.035285101540216655, 0.05248545440955615],
      [0.10590249255330805, 0.11276029579698546, -0.031251927305899554, 0.0813300649249743, -0.029961847817113973, -0.1098412799755354, 0.021686763979796745, 0.019457360665304187, -0.21960621581205958, -0.00805347400469563, 0.007546059943573813, 0.15663990156698632, 0.10112763889140582, -0.19644141120751651, -0.01583634715940756, 0.07206767843607101],
      [-0.12474150287802209, -0.02203302310306712, -0.05511487508820344, 0.10896980873590441, 0.08853687777281698, 0.047847197555097254, 0.060675777297030255, 0.04340077711713752, 0.11085185290472373, 0.07414283271242933, -0.015169497262524471, -0.013472151238885545, -0.08979195211219727, 0.029427156489908332, 0.16805660418946602, 0.019945388703037643]
    ],
    "wpe": [
      [0.033363122599443615, -0.02049446003543685, -0.13084938313644598, -0.032516228871534214, -0.11090804924808872, -0.3230485770161989, -0.05933812974910184, 0.008132282529730374, -0.2957584944470804, 0.22957150834461795, 0.014242973727278993, 0.019135002975273614, 0.051043098452351436, 0.10631066712528812, 0.046767919622748864, -0.1865646501068253],
      [-0.09518543940722646, -0.1132068660877167, -0.11979869042134078, 0.006028221519674496, 0.07463064312040352, -0.21964806292315836, 0.1837941451831049, 0.24902394785423854, -0.06381860991011397, 0.007861436494252543, -0.05141382110970259, -0.24410176351927818, -0.05842448845049846, -0.07641894724708845, 0.16258102270766542, -0.14550027044219535],
      [-0.010501777233150256, -0.0459739302923779, -0.18263494857921408, -0.14191439766283492, 0.08610431541161528, -0.13391895933808154, 0.14212668508753548, 0.22802960497996091, -0.11805672451144036, 0.050934243183635784, 0.03668008929568889, -0.09173562261777468, -0.07719474738305375, -0.04624214119484877, 0.13977969785096875, 0.1580717691888132],
      [0.030771635910533238, 0.15243872524020352, -0.16497016670099732, -0.15329438383960056, 0.15574855612834757, -0.11485460176993949, 0.18320637512139684, 0.1860081717535687, -0.22586489640195212, 0.04373743240008885, 0.12836999942250385, 0.1564651225198821, -0.11476146517218537, -0.07162460694032026, -0.03316647035654608, -0.014141499541828074],
      [-0.06259941379525302, 0.21345945395650917, -0.03221341868599426, -0.03749775936137117, 0.10218516733909624, 0.03961559259517338, 0.22759691806544866, 0.09724142145231741, -0.022107593347024806, 0.18794988896105463, 0.022694623990390766, 0.08151892994558915, -0.10558881956508193, -0.023574673912790133, -0.08912471823810146, 0.06093655296936397],
      [-0.10831443098867435, 0.1744402267551233, 0.11225175498323249, 0.07893598096810935, 0.10760359383342713, 0.007853950037938356, 0.1547316767812315, 0.06429651512379599, -0.0028645523818881646, 0.07118817939081742, -0.23390589592239172, 0.1973528593691319, 0.07380088751204782, -0.05922044491679319, 0.01782934320776962, 0.0841505838175236],
      [-0.15255981553298553, 0.1574685185645225, 0.22484883245916595, 0.08644681879064399, 0.04808607489848393, 0.16237674242614447, 0.0697475686803292, 0.008821279639427741, 0.2053491278195528, 0.048162453641580796, -0.30071922638825055, 0.29880205549295435, 0.07784458773194895, 0.032233471258710324, -0.011931018707178966, 0.14197265884943674],
      [-0.14160604628795545, 0.07536492533978201, 0.3606887456958625, 0.11024831105930141, 0.021143669505805974, 0.1732890205810492, 0.06632337971964153, -0.1072404642899247, 0.13079861352494143, 0.025248276644799256, -0.4550057409616117, 0.36897983572213144, 0.19182073213202516, 0.0454642181524415, -0.0820506505221915, 0.1302327190995984]
    ],
    "lm_head": [
      [-0.08608445677545161, 0.09510510238118544, 0.2840602455093399, 0.21669402486563324, -0.07883417501600597, 0.3227537386599093, -0.014921396978728154, -0.15363040503169925, 0.3057391145728837, -0.06787901016061361, -0.2352719284158688, 0.2577517336318528, 0.17910475785193536, -0.008755766050984385, -0.0970608249886703, 0.17783236246708098],
      [-0.16157599007655146, 0.043126505368513424, -0.08449237815413409, 0.06372359628482221, -0.007148431359683215, -0.1220326280309918, 0.11308251498649509, 0.09137830846960096, -0.08132819115443861, 0.24015530786890557, -0.12844416349346485, -0.0396127789812001, -0.06461072209259716, -0.00326087818859297, 0.1681130313903599, -0.21474435596269456],
      [0.3750394465195517, -0.3714605251615589, -0.1329121465941261, 0.023158633985642423, -0.26078249440139617, 0.157319535463843, -0.4017476900817923, -0.29312726730254873, 0.26233869579242086, -0.13353035080154635, 0.30435388404280705, -0.2908731416354309, -0.025709265917401157, 0.1766299793942808, -0.09508994966790964, -0.15544331611555984],
      [0.18171625546777012, -0.13232151854601418, -0.04566041320592752, -0.09933683177719005, -0.39854711340026916, 0.18491448742777905, -0.23322088689371745, -0.29321107639396826, 0.23476516586706242, -0.0659800236169437, 0.16475881469842554, -0.15344033455630235, 0.01736223748888513, 0.10994822929068056, -0.04021748854992009, -0.03070809335092102],
      [0.24103010761275434, -0.20634347119249805, -0.11849214011884407, 0.12008327128038541, -0.25668571884356833, 0.10943374299498809, -0.23534821760006683, -0.1565644882390356, 0.0658064426555055, -0.10583293383677983, 0.2561627406901841, -0.16646282609247431, -0.004813312011255962, 0.004696335272318363, -0.08503021823848195, -0.10913541046653656],
      [-0.1837193059323428, 0.011577860206935275, 0.012627653801131308, -0.16246273809077152, 0.13331496071299984, -0.003298861345579377, 0.07947549383623836, 0.0728611280753261, 0.0787464695642756, 0.128504841488618, -0.1028504725211742, 0.03129646830407151, -0.09748082710391955, 0.12147965028722928, 0.09128178277541871, -0.09556753694177189],
      [0.3225541070118165, -0.40094767118273095, 0.04440569445951945, 0.014656789039528825, -0.4411191982821753, 0.35672969777212565, -0.5665527570674336, -0.6808615955453831, 0.4436408587292357, -0.31581550090678945, 0.39611590761140125, -0.33839873638528495, -0.4131199978127899, 0.3383213268155979, -0.30225910561912706, -0.2503417320690142],
      [0.08142308236396306, -0.3272295920734216, 0.08679658812511307, 0.04156749748422315, -0.4650754088672502, 0.312635568876128, -0.44944246261923554, -0.5236283590185299, 0.3711635407445859, -0.2824789412601089, 0.25043083887923573, -0.3676506834304227, -0.0999203787006599, 0.12851393581018036, -0.22601972294546652, -0.1373135120180989],
      [0.1671519202023994, -0.3390025537579352, 0.01977244487999589, 0.06040815994143557, 0.04094120851681569, 0.010180301277598348, 0.006132699830391419, -0.1863706920479258, 0.11326698032553743, -0.15746550436196322, 0.004158389453589744, -0.22934458634504035, 0.22069905210423613, 0.20243783800168008, -0.28140165180057986, -0.1695702872798992],
      [-0.06458516790050213, 0.02387303261723043, -0.12204758916592454, 0.08191797320650827, 0.07221634139678698, 0.27090820079152145, 0.05895274233955904, 0.020859655664439626, 0.23970549780394132, 0.13636479225087753, 0.15124150156627578, -0.047813259531776994, -0.14849325809930977, 0.017122005791111516, -0.02287409966148995, 0.04178137598741733],
      [0.14804666100468222, -0.35785030386810385, 0.01542866331667882, 0.013004988596036932, -0.3907037573873506, 0.04094176321539314, -0.7448485587114878, -0.6802757456405809, 0.042996383292319175, -0.08443012954851314, 0.3746386680644283, -0.3323541937455249, -0.040748867380831146, 0.20623948493104247, -0.22813976272296743, -0.13124531496497077],
      [0.22180793273008842, -0.24575299280719087, -0.10940587344257373, -0.00975086265132402, -0.3219834743762858, -0.01985839878295068, -0.28133268412155443, -0.2867842338888805, -0.039993467570487544, 0.0055009021214455795, 0.14362591389812815, -0.2890229714892769, 0.015482236157669029, 0.1610906912498344, -0.06015174122523755, -0.1232817714245017],
      [0.08211353454095573, -0.021381263153019615, -0.0883597242801151, -0.1348113177415958, 0.033102247673073674, 0.005964059369623766, -0.04094111530055118, 0.0613286673174234, -0.1004429089279353, -0.17466114180577622, 0.17480557397252686, 0.037189357804429696, 0.011735956108068258, -0.10145984358812872, 0.04628953009635345, 0.05566150290722759],
      [0.19024491650762915, -0.302472446984607, -0.27159546039491733, 0.0504057551587391, -0.23892226444116624, -0.08652463939254126, -0.1299876476109166, -0.0629954278801505, -0.09084659579291204, -0.10852014708419569, 0.2728497649000673, -0.37462820459978097, -0.0018761330289388336, 0.03947313373881328, 0.04409637043799675, 0.011045208711323747],
      [0.2767043302892451, 0.16438788790522926, 0.014703861372550435, 0.10038020432048668, -0.3349200279189803, -0.026394417354127137, -0.03428465070466279, -0.10266380261089023, -0.1101510145801539, -0.2707700839525473, 0.019216148515357512, 0.18923778323745175, 0.0960583593927188, -0.06827182299694524, -0.1702285340994517, 0.23166480345356263],
      [-0.07875925004101886, -0.13776212023146278, 0.01836036126266428, 0.058705116599709256, 0.007170981377350305, 0.13879049112860609, -0.015167858276019554, -0.02895563598984381, 0.33849781360208064, -0.1727868675836182, -0.04275859083106038, -0.26339075248108407, -0.13714303486150156, 0.08212240605352697, 0.02481480977611299, -0.22989698613251378],
      [0.1425295486160483, -0.35576668469758227, 0.1484303394538909, 0.07730005899864723, -0.4747638226836278, 0.2757477166325707, -0.5433413569716457, -0.5711941850491761, 0.21516503827740918, -0.37122153730922336, 0.37557898343240026, -0.41083272446168456, -0.10303679950580912, 0.13243306162337662, -0.2805881717053144, -0.11738589127897481],
      [0.4024432640187159, -0.8690629854214512, 0.1600457809938101, 0.05748795370979399, -0.7477361505074762, 0.9631003244154087, -1.281939346073645, -1.2434568498991423, 1.207242350928734, -1.013366456959781, 0.6651108896179517, -0.7815322598773549, -0.791989041759818, 0.40476679689546974, -0.4527863808209483, -0.38700038466229203],
      [0.24404494039796557, -0.12117799939165767, 0.011639748635119858, -0.11302370480022404, -0.03359389043625177, 0.013366801675168499, -0.04652766540597462, 0.09671683774709845, -0.02453791547803879, -0.14530671878630785, 0.2009346965765384, -0.17790971604142952, 0.024385857330041, -0.03924174963740643, -0.009387997146422558, 0.08603362662127634],
      [0.13300791837804696, -0.08777188373920211, -0.013496785163142849, -0.17496054185822255, -0.2703825132789259, 0.033825463891819806, -0.1636126104814104, -0.21987991256074724, -0.09940325953321438, -0.1102256396461059, 0.09369299709956255, -0.0427750666914231, -0.025204004054584114, 0.09863680794419445, -0.07792721503301639, 0.04044450246215511],
      [0.15309367961753315, -0.11299566903552763, -0.0006986177876341167, -0.16920627416078915, -0.14731616595942784, 0.33026133358437104, -0.12106664014106842, -0.34157861801928135, 0.0769498849718521, -0.15864280581658494, 0.21403842225928268, -0.10625517508629187, -0.01739353460069554, 0.1654283963915853, -0.20358137818404498, -0.08620855560315568],
      [0.05464298328768, -0.3026859841209312, 0.07211810999371032, 0.08565088519881678, -0.08913739803802971, 0.27389333124518245, -0.1480939560289539, -0.1071862615452785, 0.33304141297527046, -0.3106937475204921, 0.19720046814103595, -0.40646518356774103, -0.1785600519238552, -0.009572524749991144, -0.12236912339096923, -0.27751383936691804],
      [0.1705923187027402, -0.3929733552332032, 0.07135470531361743, -0.09603738374840959, -0.4097997010031457, 0.23465190424554855, -0.36454930416815096, -0.2872749792643813, 0.2959250429606747, -0.554874653209179, 0.2304898642697753, -0.3970970336657878, -0.16749162905446796, 0.1363011178621462, -0.006802235735898922, -0.04714600736527567],
      [0.2407166102353676, -0.3478068494156403, 0.1523992790021571, 0.11253539427381959, -0.23583572564099373, 0.29528993435307815, -0.517802018735919, -0.532310370173652, 0.4537729460288074, -0.2581643037449847, 0.29207667988155345, -0.4501609583532774, -0.1854627876476433, 0.08734014743186973, -0.188962539995874, -0.08708148918579724],
      [0.22816838673356324, -0.5642459653690537, 0.030560089543694807, 0.03839541453769212, -0.507369095945367, 0.6600303350508541, -0.7026171476368359, -0.7002150729516192, 0.7248576155145462, -0.9451763376034762, 0.3109812178063422, -0.4816903051175091, -0.3455347765048105, 0.34214390449642706, -0.24460358605198784, -0.28442504054917217],
      [-0.0212748716632019, -0.07236826908810602, -0.12432931894144938, 0.04818202037497815, 0.03167077493878184, 0.226391240664297, -0.018743748869386803, -0.011011763931153594, 0.29693883727178416, -0.0814865113232263, 0.19908923883713953, -0.10627225214568034, -0.09509118135052678, 0.05238977519993093, -0.02893868758137019, 0.051716764687512067],
      [0.3851770173528518, -0.550238657663463, -0.17413450169966965, 0.003966226786428797, -0.2857594588527246, 0.20707425264913815, -0.2937738106317759, -0.33647872332936135, 0.25107796925139947, -0.3370918966489587, 0.4013963666548548, -0.29452905588517914, -0.3422412278869416, 0.19487797786356006, -0.11783400838204115, -0.11801188260841797]
    ],
    "layer0.attn_wq": [
      [0.04449474661800464, 0.044500263954703786, 0.012297866077243305, 0.22678463260240248, 0.037881829921748184, 0.03319736879309789, -0.11021660825715432, -0.14159017497417545, 0.1377387281116645, 0.0858159160641881, 0.020570343536123886, 0.06816599335872976, 0.03257386207993659, 0.007204751231595958, -0.17024082001897914, -0.1543589819469531],
      [0.06338250263999053, -0.03929409097717223, 0.06687762154518968, 0.101318092140187, 0.0853619993437144, 0.008094450799998994, -0.05306224474203392, -0.00023615454643576193, -0.01644002308727401, -0.03846720613757661, -0.005468897378300195, 0.010969564447277886, 0.02320507279586481, -0.022410506260255737, -0.0473452328055392, -0.0015043636189831975],
      [-0.01758694126352076, 0.05053385814420381, -0.02679631982572179, -0.22751804980000215, -0.06915444117545373, -0.057914148588237735, 0.048444540321387994, 0.06945768022849289, -0.09382397942737462, -0.08917500698635913, 0.051552413132100065, -0.008002813974700946, -0.11515712466716273, 0.06764888336821342, 0.12623434844239576, 0.09820389348656447],
      [0.014397830605495794, -0.026336387374002228, 0.10122351965000775, 0.2422878880807547, 0.051456913430927856, 0.12139556912027961, -0.10660610018745878, -0.1472903944069053, 0.11753404384350447, 0.08800892082624429, -0.006042910418360661, 0.0327385024476245, 0.043454338611640074, 0.02771854578643575, -0.1447487554551965, -0.1370661837436458],
      [0.10217992740896163, -0.12069564960826135, 0.1310811620081423, -0.06884625570308428, -0.25690034675544754, 0.04641801033630789, -0.15877929121533182, -0.2081690704315016, -0.1230986135841265, -0.15502610841766237, -0.02295513485469768, 0.03316096954098021, 0.12616820639873244, 0.11228478452996306, 0.0496503200176145, 0.06381882413521299],
      [-0.09035075985257074, 0.05043896976636668, -0.13610036824784208, -0.03172161144755978, 0.13680330989206044, -0.035774138053012376, 0.07329581411361154, 0.12108933339097513, 0.07573868635768423, 0.09067641046736612, 0.08423235385290809, -0.04787257750137065, -0.11696921634504656, -0.0719527278908262, 0.035663730499709244, -0.045995406739715486],
      [-0.029451355425350753, -0.012053731255913993, 0.10726178160224503, -0.1381257308399643, -0.17115057034262618, 0.1392253526642578, -0.056576709199468875, -0.00945633323842314, -0.1156139738424889, 0.003296842651295756, -0.014727628808945268, 0.04253809424649365, 0.06334742153829413, -0.07912368150729358, 0.14135348527751776, 0.05955810904283062],
      [0.06262522494828483, -0.1520831795916154, 0.15343371927023444, -0.09100516116430685, -0.29213278978445506, 0.0048564838574997925, -0.1876607897316264, -0.26313192647374706, -0.12076982682656179, -0.17279466718008268, 0.0273488633120501, 0.00019894999794216515, 0.08586768732551278, 0.07482976172482948, 0.030606102789157385, 0.04272323721366846],
      [0.013471256512418218, 0.05674385561282073, 0.09771554521692906, 0.20388142997040284, -0.022082055338209106, 0.1836140683230302, -0.07458423559100648, -0.14983516931884705, 0.13923054879579339, 0.08935755109783398, 0.05377160654456683, 0.005857650902750683, 0.0941742980502121, 0.024309190356404213, -0.17107261626576037, -0.05972147389632304],
      [-0.04588812800440241, -0.10479670453792612, -0.0711354079585548, -0.06635674371285111, -0.07843161195998948, -0.12863279269565792, 0.036488631323257595, 0.09952764157669988, -0.04011698580511747, -0.06080682829197497, -0.055870267829988225, -0.06850533837955276, -0.04448578512026649, 0.06864677347444482, 0.14823843968026273, 0.09240387258039402],
      [0.06445251283558817, 0.06761544387863329, 0.06481785966189615, 0.03007489866464612, 0.031028805866283385, 0.04850329268139997, -0.029911852285383733, -0.04032947038125573, -0.0949246018809145, 0.03499814025232033, 0.029099926736154944, 0.06600644003643835, 0.10971957808706295, -0.05992035275450538, -0.09915566181030386, -0.037371552844821944],
      [0.04928991231870146, 0.10055381910524604, 0.07282396323606805, 0.09934200019964388, -0.08267983236372202, 0.10424557032248828, -0.05622828082010931, -0.11089829777426956, 0.10799748694536875, 0.003985978504159264, 0.006076253544176318, 0.040755631203953244, 0.16475258009334928, -6.76142295746899e-05, -0.19309950593742248, -0.0511974618633702],
      [-0.14424513913844775, 0.00955590199714716, -0.005913519547604142, -0.14725729158855236, -0.04000698479619951, 0.038216935930575166, 0.005915638283021581, 0.10410920703579925, -0.05956385905707397, 0.07755226228503358, -0.008439250462201134, 0.09050527031541744, -0.16435399373074838, -0.11403171919348097, 0.22190530082984153, 0.08371186011673103],
      [-0.04935684193945622, -0.021195688906059586, 0.1750576163443597, -0.005623546221025277, -0.1817781533451027, 0.1658761799976751, -0.0590699708673414, -0.14330325876641795, 0.07067309062032157, -0.09595810148112834, -0.05828925483800358, 0.00703360763471287, 0.10762697394441392, 0.09338718605975728, -0.13286217929654615, -0.06926964731878676],
      [0.03131634769281767, -0.14017238408565477, 0.09811455517785049, -0.017851700989608706, -0.1158905100663388, 0.052829314190223346, -0.08847561868824229, -0.09204148373895343, 0.05239432467792983, -0.08740524598162158, -0.06915842414558662, -0.03965311003812677, 0.1414341220610271, 0.034052645752216844, -0.13007959407143457, -0.005280045369507487],
      [-0.01247020929225655, 0.02983054178170833, 0.23988810204749234, 0.10839997248542406, -0.1325608176937675, 0.12932706195156463, -0.10712549076939358, -0.16570705340178477, 0.08446163714502936, 0.04054384003584512, -0.07656402820966601, 0.05343010865803689, 0.0709667163870705, 0.049232178270003646, -0.06963097775742726, 0.045833033295590755]
    ],
    "layer0.attn_wk": [
      [-0.12806910611883413, 0.05247911933412802, 0.023238273829304174, -0.008860498942626012, 0.062097712928936726, 0.07652893022321114, 0.12768856689908842, 0.09888332520205406, 0.04956725137985984, 0.004611041748903191, -0.155751888840739, 0.08173529610550448, -0.2058398692963308, -0.0891381773281182, 0.20542347291246618, 0.1152364494373941],
      [-0.06954756648533827, 0.0105795537905515, 0.09931500290395545, 0.05542301569235874, -0.05486039358313038, -0.052398042838135726, 0.004445030188347042, -0.040419371736533476, -0.010916291379093881, 0.021427107545256598, 0.05116445895737326, -0.056296937631317774, 0.005222050676355385, -0.06260240806430498, 0.037219782768315994, -0.03592767043808459],
      [0.23530856849179776, -0.08822183366761013, -0.1385710335792223, -0.0014467119097162173, -0.05994407144917781, -0.056387614211603855, -0.08878592842640491, 0.03631694723875329, -0.07905911636320756, 0.005503630194408021, 0.10829730259124652, -0.07403779421328664, 0.09403134841708423, 0.04946192569113682, -0.1879987808543447, -0.037496340995054105],
      [-0.1759124429747304, 0.0800677027974415, 0.018756094537621826, -0.07017825130955342, 0.06497491944130797, 0.0486955039773978, 0.1001732164524949, 0.12752324502166512, 0.11453736067369145, 0.01514283910725313, -0.17855859536375968, 0.05881040103392529, -0.14989352735845773, -0.08693368472290934, 0.21387733243023385, 0.1034688486380681],
      [-0.11955618002559242, 0.0071069362491988225, -0.07590779457188698, 0.07114930688725607, 0.007368335028365172, -0.15290961796911082, -0.11516521866883489, -0.16654017833798515, 0.00685474278070908, 0.22576181912585852, -0.05250984636888318, -0.06190080251872919, -0.06971151334355837, 0.16688722547295853, 0.07553059234136204, -0.24795956256025783],
      [0.12311655577854841, -0.03690435822754498, -0.0223449389955228, -0.04426133476686936, -0.06711403896220984, 0.024417146829578937, 0.023651331654115957, 0.11375516485625979, 0.007658970604890051, -0.10909963674501923, 0.12213937492552546, -0.01602203833998885, 0.08894060944591858, -0.12064268600212097, -0.1503074636063793, 0.15041385594385945],
      [0.06944392738686887, 0.01094427356231109, -0.006525908251839365, -0.19031773978578528, 0.0010644923947901823, -0.06043105949399585, -0.03418211393161711, -0.03159540992507008, 0.046428587212998015, 0.07599128715489654, -0.009071053951478475, 0.01954407463917415, 0.07942417747345752, 0.14859609107270697, -0.029066111601094544, -0.10227387961446362],
      [-0.1077672315880603, -0.07379614182502343, -0.05551911278701536, 0.05441729459586446, -0.06124646793403476, -0.15288439167894333, -0.10781680133789627, -0.14797077748955778, -0.03576899543126735, 0.2288805712822628, -0.006392352036232265, -0.07686777247802169, -0.08305735516090972, 0.2060458237931401, 0.04731494971489184, -0.26537646313940155],
      [-0.14304846950552147, 0.024647158375088338, 0.03932936517068343, -0.08298063188357527, 0.014623894709273475, 0.010156665709295241, 0.03433994038739676, 0.13738700956516764, 0.0402383096580356, -0.08539828736050122, -0.2106419327949075, 0.042956165695897074, -0.18669975478141235, -0.11178917090080676, 0.23457984650193878, 0.07404165494436911],
      [0.11395890171774115, -0.01233988561119759, -0.06380047947157964, 0.17732113543847824, -0.043733927888644636, -0.01381274640338624, -0.02341850804879334, -0.057496569752860306, -0.011878329841520907, 0.07972732282798357, 0.19600486455579122, 0.004691468588220434, 0.09875567086630045, 0.030284771829049976, -0.18752591600944718, -0.1111335562124639],
      [-0.08679375810996938, -0.008662563618553725, 0.04764514909310085, -0.07078077417166184, 0.05869439561154845, -0.03355388393642987, -0.01376155238444423, 0.0036036158813370807, 0.02574011815285185, -0.08586823185906074, -0.1351755657988121, -0.020984796118602034, -0.045794780878224715, -0.013896323235685976, 0.2050610879296366, 0.021327127430901063],
      [-0.20658713213177968, -0.054561785016567506, 0.07151551920269474, 0.0959820203942721, 0.039689660414048734, -0.005920698049870115, 0.07794186741981865, 0.14661559955416995, 0.050016816706793144, -0.03053640134302771, -0.10069632218808788, -0.03750345251554056, -0.127768599607172, -0.14023864365392189, 0.14765021916439836, 0.018532539541508634],
      [0.21481159782765388, 0.12470677380994519, -0.07748531263815202, -0.07859772004276486, -0.03779248830703961, 0.015821712100607347, -0.06373558499180197, -0.03695309238682763, -0.022213947671941525, 0.015921327462215633, 0.0846396850507272, 0.07455218287754795, 0.11121423889668615, 0.1017174060424827, -0.027945761145850567, 0.04910154335570283],
      [-0.20107151723632896, -0.09437483751741654, 0.05062685426136643, 0.13144069547030346, 0.060820966980052876, -0.008445359583668183, -0.011743961273141508, -0.018709692988619835, 0.09788588341960372, 0.09351769646894202, -0.11484315468943501, -0.08911848773555249, -0.08231374846344723, 0.049539977138702805, 0.0435588313157696, -0.15688617502824898],
      [-0.14531938815076595, -0.017702808511431713, -0.07771166397355145, 0.28750568799895476, 0.10224902192223086, -0.04733174917559638, 0.0983915081008012, 0.029115943713837168, 0.0737080394174724, 0.0772654592033069, 0.01687295055748877, -0.07172337476116318, -0.08048430006068136, -0.005107995692172547, 0.03507352237984678, -0.05214522801534718],
      [-0.18791787384527453, 0.03692163648804491, 0.07542663141246957, -0.04216379000525561, 0.03115718702490375, 0.01908610320464713, 0.021431992652986044, -0.07254037540478443, 0.08480052765040492, 0.1458097282492711, -0.19497908273197195, 0.0035335546595802072, -0.15209023114013018, 0.13056648869604587, 0.1003405460229165, -0.10422680221355728]
    ],
    "layer0.attn_wv": [
      [-0.006543020217556843, 0.08113443812582911, 0.07907021210121898, 0.1157618947099356, 0.017568970452529815, 0.032621909744812855, 0.04703682924637089, -0.008050545693019544, 0.05485774007996016, 0.039382026464633006, -0.031943113384042765, 0.13152918820154585, -0.01992104493486035, 0.06303687031513991, -0.05427384664051479, 0.01671762131701221],
      [0.010961183826577877, -0.1334811510657282, 0.005716719727155666, 0.06740897801058501, -0.051912691701682646, 0.07940335851110497, -0.10686963097085121, -0.09091744183170244, 0.006799245792803638, -0.07173532392685507, 0.03443473271835839, -0.1906256381546315, 0.06405525728670296, -0.03004909466794054, 0.026609647642007923, -0.013981388131644023],
      [-0.04152269026393918, -0.13047885700931466, -0.08020026899721487, -0.015967345586750236, 0.015728150499931245, -0.017610968172451693, 0.013708962042404436, 0.0221344130192413, -0.04529660880358089, -0.04822301014729506, 0.03875676317885509, -0.22716009791852115, -0.06572960910693858, 0.07750736959537038, -0.014736884280164602, -0.020166505629759093],
      [-0.07085082041356082, 0.14810688683709644, -0.0190834590736741, 0.0036097273030095897, 0.057400719310501495, -0.014298599499354522, 0.14122376335403033, 0.09690616472423833, -0.012786362287179448, 0.0816623056008546, -0.01967728721687171, 0.16765717136423208, -0.07689392906005414, 0.045371744718704074, 0.010086944892920014, -0.009033950971917386],
      [-0.09230717001481673, -0.11001919586882718, -0.046795212808382856, 0.09507495877669522, 0.014709805785585428, -0.033872682772768004, -0.012768956678423038, -0.04502648403261674, 0.00428594134594416, 0.060744752693282736, 0.022104474584086525, -0.24400067678809226, -0.03709209292997036, 0.09117095456837197, -0.0010177194895205435, -0.1316768682181422],
      [0.01255238433468214, 0.12687509023954494, -0.02188019921769524, -0.0805191735154787, 0.06369764634491591, -0.0003167693011350766, 0.0789684646465864, 0.033843883065843086, -0.030749573941024753, 0.0840203726246618, 0.007411138379403135, 0.0979586576392569, -0.06901485594025189, 0.016600209361323018, -0.04108402251819804, 0.018759052291626964],
      [-0.04624242333989723, 0.002527690027818578, 0.012027869646995587, 0.02937425644798192, 0.056684028249312346, 0.02766174345206096, 0.018107951632547612, -0.030751485912153112, 0.04247254677408121, 0.11812261928325075, -0.03536123868246646, 0.008514413238204248, -0.054409248647699936, 0.023635831575349448, -0.012213641264708985, -0.05831541137862988],
      [-0.10964006746526483, 0.02552423269388129, -0.06421097232442426, 0.06635397269705218, 0.06827094397309304, 0.037176138239282425, 0.06247454098353195, 0.03486916865246741, 0.07214926190271839, 0.06308715186382712, -0.09724288440594134, -0.0467376104379767, -0.19521438907601651, 0.06705457790822576, 0.07101868796891551, -0.0698711729605733],
      [-0.045594418158150386, -0.045423224454436854, 0.021841826348952063, 0.0014616326824282537, -0.050615385029014685, 0.02924318764088618, -0.011671624171185616, 0.02339251119290853, -0.005906641044165058, -0.0642751605948621, 0.023927725069786326, 0.0024466557341158877, -0.03949701655916354, -0.06505722880954863, 0.03785603879843192, -0.041523869958314384],
      [0.05538032671224742, 0.0950087720130399, 0.039988354298447396, 0.035956562629752255, -0.038283622766692435, 0.045662360382772806, -0.01843781993143317, -0.0028053896124472363, 0.022240364191865994, 0.052532860393081776, -0.06316207883390036, 0.251574245685347, -0.007147542205857132, -0.015225266747546028, -0.007720298516372154, 0.03445483163154905],
      [-0.07636360129876425, -0.06195102775295275, 0.005730981007893422, -0.06528356522938687, 0.007888475606379576, 0.009139932510507246, -0.016013257428183037, -0.024931163331021175, 0.003212050580862552, -0.055592847152250865, 0.005286046464217842, -0.07206874946319379, -0.0743212321074679, 0.010785515656280593, 0.06225324287391996, 0.041254562575590716],
      [0.03432914349055032, 0.13255605887820807, -0.01976290806997855, -0.003257437195203391, 0.11073857267068488, -0.018201029334037017, 0.07271407373833522, 0.06990962910457164, -0.03635775240814772, 0.0902043451431937, -0.025430374911330034, 0.198250544511029, -0.02093903677691794, 0.048622414076367235, -0.02287694067999691, 0.01904683426809196],
      [0.1738688550228816, -0.03362044716393033, 0.015970092741526845, -0.04665967091387543, 0.03486508737828512, -0.053316213128484544, 0.0006183560490355105, 0.01900274463708799, -0.02033577249356392, 0.014364378936353903, 0.02860479543585943, 0.031685183406632865, 0.12633647408711757, -0.009281161011943793, -0.03848723693552158, 0.06918887544162498],
      [0.06231378100275312, 0.04740030006012702, -0.0777225521240277, -0.0007727668653554036, 0.052176133592054086, -0.03752427958902876, 0.06347923100243384, 0.09917049825937325, 0.007444218482065844, 0.07684089100015573, 0.021990508875120243, 0.04775046550248091, -0.01816934907924061, 0.05037318930846643, 0.024857458470755392, 0.043653854416728026],
      [-0.08622619529539162, -0.014403812063130472, 0.07620287950147972, -0.013920066615900062, -0.006548269833889189, 0.021746199136850546, -0.02647765072356451, -0.07470274378495342, 0.02654841546181298, -0.07538040771048904, -0.0710269354942702, -0.07460456183769193, -0.04977749865522318, 0.024830887869654338, -0.020063616344763918, -0.030947431763419405],
      [0.05745399848875736, 0.1179727416027157, 0.0374509586274648, -0.10344984736699256, 0.03804845265867635, 0.03823565219165551, 0.048339061376867686, 0.06775879810319387, -0.03241354401386435, 0.011260586647561048, -0.0339347676303062, 0.22961612532676914, -0.015091472475575038, -0.12477149608851654, 0.04395004436214792, 0.1163783500488394]
    ],
    "layer0.attn_wo": [
      [-0.07349439102962274, -0.026140110631621274, 0.09835180909122916, 0.015494670878480592, 0.08014532994013486, -0.08805753733086469, -0.12285615488476781, -0.10953189509851781, 0.028757885469963704, -0.10110261803523761, 0.019111641959939075, -0.03939500190134257, -0.08181808278541676, -0.03385773931092173, 0.1131058169817773, -0.09355940466057307],
      [0.054754484675708336, 0.0820599360329612, -0.07994261244240058, -0.02560477708857251, -0.0505640752295565, -0.013534603252399566, 0.050821118683494086, 0.03977340435585609, 0.1054338031356487, 0.04590020793113112, 0.16568111160246643, -0.027227256946627407, -0.061759630470468396, -0.04003218635994421, 0.05729373008579755, 0.051685530317032956],
      [0.01003653953898297, -0.12270761113899888, 0.004377426293919074, 0.1029598019835086, -0.04818664549622725, 0.1220861921585581, -0.004833059163637668, 0.061912716506746644, -0.03413020842901149, 0.009390694049502213, -0.038671138302892594, 0.10196126332328605, -0.01058875203755394, 0.08748438967649919, -0.03298133629904197, 0.08383834128081268],
      [-0.06128598170530979, 0.08282618224228452, -0.003929103716013336, -0.08248772283328498, -0.0045076908653102704, -0.09208243550600821, 0.010492921582987674, -0.07148995128226317, -0.001579745675528086, -0.01535314489861713, -0.013480870855476881, -0.07623689603763908, -0.046227528448035175, -0.11519491376297626, 0.05523081137641052, 0.01750154202204369],
      [-0.09825735374361348, -0.005786470538331407, 0.06366730744047673, 0.01494149177093861, 0.13130341439161175, -0.014063800089767098, 0.01076428501959007, -0.045254347665837136, 0.053422502237802434, -0.06999159057474562, -0.060980809288402965, -0.04740062270516877, -0.046886620498659756, -0.008727976485902384, 0.020131959975289496, -0.08646781185254795],
      [-0.08136718113139241, -0.08121462416414393, 0.11139885928761625, 0.09806557257360417, 0.023711908222527577, 0.016936189629805955, -0.04877625351736627, -0.08979342248430247, -0.050903309465932724, -0.1350086987016057, -0.0316349252376069, 0.043669784605499896, 0.06490283528288097, 0.06168136448344693, -0.056181359867677735, -0.009723260841099642],
      [0.02664423078079849, -0.04202641296296866, 0.038164555584601786, 0.057917753926776845, 0.17082710029750856, 0.009058017544444817, 0.021615907689669246, 0.04323800801089669, 0.01658936916787375, -0.02542505824632515, -0.018629859214145856, 0.030397899133313845, -0.08707346918132096, 0.005959425756901164, 0.02539709475871204, -0.156751159419335],
      [0.0775213075567734, -0.01836457288286896, -0.034180095095311405, 0.0431664953357205, 0.08566894898380356, 0.02365043303967885, 0.09206946594619596, 0.10376820560360162, -0.07864305969993914, 0.044046484496130786, -0.02874394254558734, 0.06409698676120065, -0.00774616469624049, 0.01489242446067842, 0.0014808924566062092, -0.0861795438993109],
      [0.0008574957520445577, -0.053493063873493917, -0.02227088890797202, 0.047284286954193865, -0.004918495699493627, 0.055326241232089145, 0.09725775381925895, 0.06607094747478451, -0.02411870925272152, 0.010561460613441178, -0.03763245464239672, 0.05721626161711326, 0.006891291593464798, 0.049233726945294674, -0.05899260825674233, 0.04738380810366838],
      [-0.04974067540601551, -0.025713823478488718, 0.01970671952419432, 0.028235939212398475, 0.03498818532037828, -0.04339237121015252, -0.06337216563531174, -0.033056873103490224, 0.052547508962124144, -0.027241071642545547, 0.07459541555826552, 0.00817118446774991, 0.020442474760764728, 0.021091263598438804, -0.007868900417943792, -0.01564736179387327],
      [-0.0542029277614066, -0.006954734306773317, 0.09996474039039736, -0.0009705962148005625, 0.05189627263342242, -0.015223709112783004, 0.009139807400164993, -0.04706704872522752, -0.027326985774165213, -0.061027622999876026, -0.020234455443371196, -0.021469603626586425, 0.10092848207264739, 0.02962638194987666, -0.03132916880478676, -0.09259999748052943],
      [0.01254610104210444, -0.1543045659994906, 0.0025041260218776696, 0.16449950170446584, -0.04557510852740212, 0.07839224842604332, -0.016444042988938326, -0.026134376393219284, -0.037867540769231316, -0.014776039525906464, -0.02361478135264096, 0.12284675764112611, 0.041758245762143806, 0.11394164237704757, -0.07939127677959595, 0.04487778096311093],
      [0.05075606897482266, -0.04157042432830008, -0.13901834751035025, 0.03201307767995793, -0.2582259038324312, 0.06156695429392152, 0.010915787321498104, -0.03555640662031732, 0.06460767692434186, 0.14471150342285224, 0.06834146597288944, 0.08284399639741503, 0.04895518504384416, -0.00532483415739713, -0.008032915511064062, 0.2208978069564789],
      [-0.055848399728691114, -0.09517917995014684, 0.035931004563292464, 0.07333861803264358, 0.0007321446960526581, 0.13751931479074436, -0.03133619049590126, 0.08727660677598591, 0.013145352852502623, -0.02353762975978093, -0.003261948826246164, 0.12045116000655628, 0.08622215574965361, 0.1496506173313169, -0.14795089496509148, 0.032470974295070724],
      [0.08588620759924598, 0.04179587421953754, -0.06054355009595998, -0.02539287306713834, -0.025990472038461356, -0.027731177830422157, 0.05315272314637086, 0.0002302577616841033, -0.022462412468839257, 0.06066041219437769, -0.03440754619568655, -0.03206959262786034, -0.017790305077854916, -0.06618790529048117, 0.06163726476705873, 0.01709889872782781],
      [-0.003696120416136393, -0.1597456621919376, -0.017194088461837065, 0.15405013925917976, -0.07701391393189451, 0.056906740417833654, -0.009809869457842842, -0.15694731017052707, -0.0540111386592582, 0.017548975427242926, -0.08677507859134143, 0.12325548483168278, 0.020963875759352484, 0.03728936630248672, -0.045877338947923896, 0.07063946954993533]
    ],
    "layer0.mlp_fc1": [
      [0.014865829281175757, -0.004150041072370617, -0.025288143753388847, 0.040823297784227414, -0.010163881604063863, 0.10002693892090755, 0.01984847151938659, -0.14260853076480665, 0.01923749624120577, -0.008669060296652261, 0.08023147236754881, -0.07550753885093818, -0.16026278587346837, 0.05467345382176242, 0.0007311047993705903, 0.06941889128009235],
      [-0.022877926603284384, -0.12607119312320886, 0.020821329190757243, 0.049193167564454764, -0.0355759513972957, 0.04212632800483381, -0.03977188088169003, -0.09831460732836637, 0.07631872259133378, -0.025801406133603648, 0.018640732022926952, -0.10175242824423887, -0.012516873730631064, 0.09320590903097366, -0.08951377877510319, -0.06528733727857701],
      [0.02595935143496176, -0.027444549894489988, 0.009102193549336604, 0.14519011930108308, -0.20303268220794715, 0.0534324327091103, -0.09330475670746294, -0.14894397373675033, 0.05144062765542526, -0.01923065819112833, 0.1354874635225791, -0.08166632156284916, -0.22742866797838823, 0.07507656670063767, -0.06954691539863317, -0.008661324662139064],
      [-0.020081732139037512, -0.11665703233283135, 0.026902873888163564, 0.06933728107489427, -0.12865230206263417, 0.015084400002443361, -0.17004637809888304, -0.1701829542123239, 0.056200218526928934, 0.03125073528889691, 0.030195647618937716, 0.008119866581672916, 0.010532802768634726, 0.015652888939908068, 0.057555200199045184, -0.02959774850270094],
      [-0.015034788159418598, -0.17085782143184333, -0.07113810185455141, 0.15784450903765787, -0.07978356101601122, 0.035208705432006736, -0.039050129587593324, -0.10240379705529849, 0.044800959377426085, 0.026262513229896374, 0.13077574224078076, -0.26930873499689467, -0.17784948657555943, 0.035440458434493755, 0.07190957070469414, -0.0013912166965491307],
      [0.1487440987825967, -0.08502477667639831, 0.05208457928439784, 0.07854968108481226, 0.02557878691610691, 0.04239131597348071, -0.031288530120876984, -0.05625134808853042, 0.11103709999923311, -0.08407232529171388, 0.011208173136071075, -0.12969361577652244, -0.036844127970411505, 0.04871206899945502, -0.04125184652039211, -0.10479143537394559],
      [0.1574162548315918, 0.01653212340635373, -0.07972157510940099, -0.057663902707762074, -0.11852162999747158, -0.011120518186471601, -0.13571028311830213, -0.1714123392840746, 0.03779179032805703, -0.09182143632873366, 0.18641486040524552, -0.04753627379892348, -0.03795864716224319, 0.03766558255695267, -0.1470749812369821, -0.023173962006267822],
      [-0.033465796167750056, -0.11354169014897939, -0.029454765614739635, 0.26357533516281595, -0.1289235722658691, 0.052758613285606014, -0.019868816322166517, -0.09434825948619792, 0.14006739403795357, -0.03131191468492107, 0.1286907875490292, -0.16937896402581526, -0.24417690873479317, 0.0046014562423009305, 0.06093300125563902, 0.006503492062236527],
      [0.03236665939564914, 0.03941023343907722, 0.20049336531664502, 0.17273115500674097, 0.03520968825005522, 0.2294934994478233, 0.04474248132183068, -0.08217262120459486, 0.18876568683625644, 0.0012295639143888011, -0.14983728024898907, 0.18496300333506172, 0.20131463168124303, -0.01716964719538795, -0.02187482559430033, 0.1462095380353209],
      [0.03779308668721963, -0.04461298612762885, -0.0018934218841952174, 0.01240660328426826, -0.009915793953102749, 0.06317856016776381, -0.06968120515511514, -0.09977299307304427, 0.0911169700620347, -0.0678511789033289, 0.08669598223196628, -0.052286757159582704, -0.058487835385960994, 0.03858151876145422, -0.026160651113614566, -0.0007576139855326487],
      [0.12222897449989589, -0.12750064225512886, -0.0799508789977261, 0.03441438005056383, -0.08507312905613859, 0.01982120807680438, -0.0772709403428998, -0.054458651346225816, 0.04399297567169197, 0.005765982495184186, 0.054872790260964276, -0.19446103497529849, -0.07557515907034121, 0.0992026636877465, -0.00621333314577932, 0.006502506695360841],
      [-0.11254204421829975, -0.06274981502443541, 0.09456759520882892, 0.15064399180748944, -0.1328152265167569, 0.07914424907832139, -0.09920373087857802, -0.1871417519029225, 0.07351988454348574, 0.10859966429879103, -0.05380544559599498, 0.06184900373427016, 0.06294207363506377, 0.06271701504977001, 0.0005882742989239271, -0.04481769409756858],
      [0.05308765774957469, -0.05372100185339912, 0.06971331262170118, -0.009878950313642294, -0.05907272064820969, -0.019798400246448584, -0.029387096380176204, -0.12630409198854414, 0.13663253825872193, -0.1334426646408672, 0.00954891329859537, -0.10968384443262459, -0.01758615086865271, 0.023276741509162924, -0.09290690538446766, -0.09720153278598354],
      [0.05653721412625785, -0.03034450488368881, 0.02528705089438161, -0.022424050206618914, 0.012849488774774818, 0.047410993920071684, -0.06590144838974282, -0.11066555640053964, 0.07395388321713646, -0.05422021190071312, 0.059702507247341434, -0.031296605714207164, -0.05852182240217723, 0.01654451060649074, -0.022190469801630874, -0.05079394760994942],
      [-0.030327047851858028, -0.08228076330016146, 0.03255025287525507, 0.20554881913091716, -0.048621151696083185, -0.03906411571775067, -0.022570259390481753, 0.02010639600182574, 0.20342343206079005, -0.053298637267386983, -0.02224948326899131, -0.13104654269689764, -0.07898908313518499, -0.024769065938334885, 0.006450803855406555, -0.07048492567652505],
      [-0.1181395339796416, 0.013658037046968243, 0.06073382849709548, 0.03143083309751488, 0.001406538852636108, -0.024889415231026626, 0.06677040746576843, -0.0036510647956255805, -0.03972187702492782, 0.04835222286574578, 0.06642379333033382, -0.04336679384249391, 0.10703378415521643, -0.022288088327801894, -0.09891096400508899, -0.09602434449112383],
      [0.02337416590987501, -0.04655456319098592, 0.02249357522475967, 0.0023493005450530946, -0.10163771636335599, 0.004529003575151067, -0.002120815020362403, -0.121072655679485, 0.13371108247618554, -0.055917580128425105, 0.043015378771790416, -0.10460402036789228, -0.07218501393924998, 0.08564102380761172, -0.0886660801920189, -0.0179467022185506],
      [0.05072768623785623, -0.1192312779018122, -0.0063523937356172, 0.06449900487611163, -0.03063933210418558, 0.04121523249109401, -0.18508558800491967, -0.13396710773934192, -0.042450401689742255, -0.049490088263285985, 0.10203460995480262, -0.0703324207320067, -0.05732480938239664, 0.07374743614566372, 0.017452867153337593, -0.0397165958826904],
      [-0.014861076600548445, -0.044800638362997, -0.027719575851917616, 0.0015012468950084895, -0.08182552722087165, 0.024412518725141386, -0.08556075555368114, -0.10296278142760511, 0.10692674736268815, -0.0702765609932092, 0.06868483223926444, -0.10521978297508251, -0.045352120481303805, 0.002640202074750186, -0.06651385125933323, 0.005798892899884902],
      [-0.04483401221240311, -0.1393375800383451, 0.01161543838955429, 0.10478717160466768, 0.042545201669109085, 0.018039245420533152, -0.011072792091826676, 0.06826285096839264, 0.17540847471849189, -0.010474535201812862, -0.100786805889292, -0.22677063938710057, -0.09360715475032381, -0.015199840027326382, 0.03523772012576104, -0.09412588006120431],
      [0.04801308014781362, -0.02671421153151706, 0.038933901036184104, 0.2803653116646306, -0.03737760381718186, 0.019206813186699003, -0.08822383938413876, -0.17855738426927806, 0.005899712813194667, -0.09869567050377646, -0.04959791496533028, 0.08015033838802758, 0.034309322266098834, -0.04581214533133086, -0.03281910875085982, 0.054149593551993794],
      [0.18592454558757474, -0.0945821027686123, -0.00872868839329679, 0.006366521584871006, -0.1476373677696437, 0.04765973530926088, -0.3031166108813275, -0.2651446065201196, 0.05530460146874558, 0.0031726173813070974, 0.36851115729794337, -0.13523247215223413, -0.12942038427959376, 0.07708169487019945, -0.2094807968331745, -0.09355470252600608],
      [0.02816127048080593, -0.13476267154885982, 0.07097238174647871, 0.24035257492261353, -0.1283196888796221, 0.009924693424809658, -0.20920520082460572, -0.15144240189358785, -0.048101000495458415, -0.06996263411712918, 0.06850018256422649, 0.01991327334213952, -0.0008209131401745268, -0.1481042396063105, -0.031173209015406888, -0.004621587642910229],
      [0.0003787758419904417, -0.016474231690770103, 0.025225315848178786, 0.14758872792834077, -0.15729998063621753, 0.04670372248380366, -0.1310355751381655, -0.10646002273103813, 0.07013697315033092, 8.159078725686663e-05, 0.0058704348591659995, -0.06870509879055131, -0.0761314674475054, 0.05036834948801004, -0.109131927160734, -0.027078277139889126],
      [0.13353767003442243, -0.08816266339997592, -0.02757313101278921, -0.014644294951065938, -0.0466710766497288, 0.13801270488723325, -0.11530048175924847, -0.061373301979106946, 0.062395005252367436, 0.07852978754262907, 0.11685375513335491, -0.1734178235881503, 0.03670585396345948, 0.0390521643180363, 0.037368736649097595, -0.06630375596604245],
      [-0.02755838128881796, -0.015164452577553528, 0.05143926120183147, 0.09054532815135254, -0.08876338060725254, 0.03556831588997584, -0.011134154525134485, -0.05617820070346778, 0.12483557298269976, -0.05083106729646492, 0.05497056950008558, -0.08635691717536022, -0.10413417857292383, 0.042452725142019275, 0.0057178953090483466, -0.05224173340105555],
      [0.06954828123547245, -0.15102087297581712, 0.06509688036814239, -0.1115328676861654, -0.06965274709175648, 0.01042903902368685, -0.20273603754629915, -0.16931344887148603, 0.08400257042726769, -0.03531390091390711, 0.24003099185158422, -0.09304551861966227, -0.06128607520650177, 0.012379903003555062, 0.005991845222852807, -0.0187967239503442],
      [0.05873564837381469, -0.246650628258852, 0.024866361595624772, 0.1045389603306305, -0.05889780415865044, 0.016823771627195325, -0.06508497513981588, -0.10402814805061579, 0.018980293235928435, -0.0779686111183631, 0.07852746239410165, -0.09938297009168173, 0.0555838046951261, 0.07546712742167026, -0.07566987727729887, -0.10796154331715664],
      [0.07454535180449873, -0.06280324103294511, -0.007736873004808612, -0.002554921519046383, 0.04183176559396617, 0.058886755911682076, -0.12999768400629516, 0.0014011780277955253, 0.056546758740524165, 0.018072231317743995, 0.027021173077516895, -0.05706364958876906, -0.066217882447179, 0.07429287093357387, -0.05978579143166598, 0.0193771917349843],
      [-0.05369108013122317, -0.12290379149787821, 0.04564749695446119, 0.08350548396800708, -0.16455839871050462, 0.00990688603687876, -0.17822654836000548, -0.19272174302061176, 0.018015597828430707, 0.03235927940095175, 0.04430850431486417, 0.00866990936520938, -0.013920921803232766, 0.006406007646988108, 0.08388256126564349, -0.01906324366694096],
      [0.0812439671979582, -0.04250352553974343, 0.013900054169382822, -0.10986880500743054, 0.04936481684573889, 0.05405960907775459, -0.08140058639071601, 0.01902535399717565, -0.03933993255076538, -0.06225121299643903, 0.11462253582038254, 0.03326832548128635, -0.09777841424843403, 0.10332680488566498, -0.051499805996680054, -0.057671695568211806],
      [0.11261598516460875, -0.1107487336023699, 0.002395700784796499, 0.016335396288880807, -0.02785619372408812, 0.10729063732178484, -0.12859070556853103, -0.04388888653886195, 0.1294084022406825, -0.007077250086618743, 0.07791261316679537, -0.10934466050649878, -0.06287803042677682, 0.057659726638512085, 0.017052800227235834, -0.004338324754720072],
      [-0.06493953238182175, -0.11768560079279755, 0.0036009282551535205, 0.12160478665339668, -0.05646614674954948, -0.05442086880667607, -0.0013309460972180927, -0.07191849569266852, 0.05191884390496855, -0.038744571579346555, -0.028103735437496256, -0.26328164631097645, -0.0754463415236915, -0.07502982569106337, 0.007175341677290253, -0.0850428635772851],
      [0.04488441901887848, -0.09298465490294523, 0.017517602461067157, 0.05192523333211106, -0.037560337805789774, 0.03501337150275843, -0.07574680309607985, -0.11915755595255581, 0.10996758066649638, 0.010974999274781917, 0.09292285104860216, -0.06188892868314672, -0.046296947850879844, -0.03812471792567406, -0.07777598104909951, -0.004909830401594134],
      [0.020306516971259837, 0.024638615945511113, 0.006862704448314526, 0.005682484010811253, -0.025306585009890435, 0.08173547824534563, -0.05693053608845053, -0.04849766910975077, 0.09669024760097042, -0.08817156541247557, -0.022976649337732493, 0.040610552857360906, -0.09532178399474883, 0.037747933505010406, -0.0773262067511986, 0.02234134196958624],
      [0.11336258003268206, -0.09086142163411817, -0.0006633250520839461, 0.014008109964955077, -0.10078314395991589, 0.02135062455173806, -0.07513189833011086, -0.07758652076809666, 0.16811956596552358, -0.045069655180344184, 0.022694789424106944, -0.11252805765557505, -0.07286018442409761, 0.08794201140717131, 0.010208852192009732, 0.05045721471313208],
      [0.09277520930430709, -0.13589218812765314, 0.031738001858982234, 0.21087895376286184, -0.09151653528979824, 0.014011954681744317, -0.24486301107957656, -0.16019740632850854, 0.006575280465219176, -0.014795313541694076, 0.015847703463137772, -0.03911204870342967, 0.03258010164701939, -0.06610216439206922, -0.15145742517193123, 0.02979904304120671],
      [-0.04623537905628872, -0.06919039960534686, 0.06751169417787775, 0.07011163998892522, -0.06343241315800939, 0.0841981337626502, -0.16910448647500553, -0.27099668461344834, 0.029741141953847354, 0.0667518606819646, -0.019865729909767364, 0.008169875343549408, -0.005584987655229146, 0.0693022820429726, -0.057445383765492415, -0.041745144735452495],
      [0.1719609611284011, -0.14401458922230623, -0.07540932282182129, -0.051006377137594865, -0.09736009859668447, 0.04528158016517957, -0.32225807461904316, -0.30362476547075035, 0.03061435011710841, -0.02553681395232237, 0.3077751494832246, -0.12922879084588668, -0.06659127195341062, 0.093017881811662, -0.1353975738658832, -0.032841228842163506],
      [-0.005514941749491776, -0.17527323494661887, 0.0021254803141271287, 0.025782995724358073, -0.09521638151983158, 0.025852627516002043, -0.015097869748838097, -0.006045561003353919, 0.16724370118299123, -0.0328427639884105, 0.012054610966448507, -0.15936371482559944, -0.1312814098312411, 0.03253691233664717, -0.007986810777339497, -0.04242164245631943],
      [-0.021224537336087333, -0.08661323571793872, 0.06344455142206794, 0.09191155380732677, -0.18711622141077833, 0.06848960464339016, -0.17551368556570648, -0.17182896909356113, 0.0768331409016309, 0.11617501028418015, 0.030898746948799603, -0.0309982934208125, -0.05880013444091779, 0.11028329664646969, -0.021112600114086083, -0.020213236118578365],
      [0.02703189450355645, -0.14120427242436767, 0.001937636002369794, 0.07153347677921974, 0.037607155743864, 0.05957246886381721, -0.06274938571653117, -0.1210507925909824, 0.019551147126586888, 0.020686671874588097, 0.07974954188825048, -0.012047296508886373, -0.03632343839271796, 0.08125415864795095, -0.08196501275674659, 0.04131524229126486],
      [-0.013941321675122336, -0.11090883728191983, -0.01930305378821308, 0.07256050220112643, -0.03164628506781351, 0.12006324797895251, -0.06368080429099778, -0.09971610979946548, 0.02246690794985584, 0.03746334381859202, 0.07038257568264329, -0.06155435707790819, -0.05986319204848875, 0.024558916552778278, -0.0914695277259049, 0.04799698584419364],
      [-0.16947345070659653, -0.1107408938094296, -0.01641295985621682, 0.058035360917506884, 0.047575213947560945, 0.025207094860367114, 0.12460781222758335, 0.09175414437662317, 0.2301068904152399, 0.025468156231005186, -0.0811479352806615, -0.17120156174683668, -0.2065828208226759, 0.02138352135687964, 0.07190195795842892, -0.037713691993630664],
      [-0.03206695594548076, -0.020551303120971726, -0.004200959212209471, 0.023077799731641306, -0.05141912084196895, -0.06432347683568088, 0.03927973978580961, -0.01579987621679315, 0.19388000716655082, -0.005793252607849087, -0.09176037174965851, -0.1209254143026796, -0.14403380081118575, 0.09296760866372947, 0.05528141581448656, -0.035688594736417924],
      [0.017974954219176782, -0.15467430213085376, 0.0013590523142020887, 0.024264707538941423, -0.1336599793106423, -0.01975277213896336, -0.19886354656868047, -0.15631958288067416, 0.039770287104346054, 0.061959146864704356, 0.029400952375142203, -0.04942347800576485, -0.03612668550559915, 0.0019060431985693659, -0.06768343833222142, 0.008281615829487214],
      [-0.0872765458616957, -0.056592111989273955, 0.07776791120538414, 0.15846026890988735, -0.08370713683741232, 0.11418433617473694, -0.12039095812900438, -0.11503497981325742, 0.09451125234560777, 0.05234275568486495, -0.018540289606614302, 0.05051061949427982, 0.05459772892985823, 0.01646648978059909, -0.03426056949803074, 0.07838528504388073],
      [-0.009500680748227587, -0.060747075926424435, -0.023259322652682105, 0.008600645043467275, -0.0708123884308697, 0.026587280046064154, -0.10825111758367652, -0.07945283732858562, 0.041064866149601, -0.03230417581720586, 0.08981276390883808, -0.03324865019780708, -0.016514547833149255, 0.010760312746011781, -0.09245570045973826, -0.0430187202653194],
      [-0.04898999578581736, 0.06177134316046923, 0.051161968522452785, 0.16355201847852935, -0.12556157714079302, 0.09241420419901869, -0.014465997308070666, -0.1532479553747329, 0.026753138190505916, 0.06383714666203666, -0.034830347435156915, -0.010533277863085498, -0.05242626584086264, -0.0018850444087283548, -0.0327594905063079, 0.019863271963403845],
      [-0.03798572052719726, -0.1334605500579112, -0.007156864786069272, 0.024737287984418897, -0.0076383623781401625, -0.006922502223463294, 0.06166789473960219, 0.03622472697685986, 0.2761191678538781, -0.008948783666959075, -0.05878610523664358, -0.18376898432688846, -0.1867926023179451, 0.05759077388446571, 0.1186505955463442, -0.04533133920211536],
      [0.009434446953284449, -0.15699183613311762, 0.006162104189261949, -0.021335456627046424, -0.03850070592497748, 0.07921410051840752, -0.05561193758916596, -0.05921849851465268, 0.03215955049938937, 0.014458476773943966, 0.12452212979691692, -0.08820621385390082, -0.10615170709365904, 0.1110369657285346, -0.051486292076992166, 0.020878889558638765],
      [0.10623767125677125, -0.19045584834601026, 0.04977874421652629, 0.10298873233483188, -0.07940306908021186, 0.004794981222798711, -0.30191392837109693, -0.1519579963188423, -0.008540052562758655, -0.07125922285226344, 0.03804920045948533, -0.009450040556542976, 0.05764134510502418, -0.10855886770528138, -0.08354520426442197, 0.06468198110888163],
      [0.23626221515089205, -0.17110882662546395, 0.02052885043005477, 0.06545052627312957, 0.04476941169659856, -0.0019746389278326114, 0.024065804984023834, -0.07869679043044439, 0.0314271212558831, -0.11750594267741415, -0.021775190510420598, -0.07701379258589428, 0.04299917617937337, -0.0035339943233989564, -0.08092401567671664, 0.0014214320028767657],
      [0.0136054115504596, -0.03616763869678755, 0.00500730607949525, 0.02926876859102713, -0.022339469233615926, 0.08114385995494625, -0.07018035335482112, -0.08225678307250799, 0.10346023461154807, -0.03965459535945991, 0.055109574516959366, -0.12367157066168391, -0.08527978724990211, 0.07385846865191523, -0.06768709460996652, 0.027695210734942396],
      [-0.002620085208592344, -0.08411649868415251, 0.03487302249508344, 0.023363360637201593, -0.03360737760939574, -0.0151079206380098, -0.10475803779154681, -0.09526578043065037, 0.04518010475633237, -0.009618973743585247, 0.07293511973042016, -0.08214472870331993, -0.08592429924024071, 0.04846729764976187, -0.04335327299635595, -0.026007803424283594],
      [0.0697635377667713, -0.10214995445020351, -0.031828742096138986, 0.19229885370919622, -0.06371096805280625, 0.054153872301631135, -0.10842491092107041, -0.10885827783773448, 0.1350398140815452, -0.0693572506239318, 0.15219593155969577, -0.024247794708023844, -0.17066165416971885, 0.08192919161705776, -0.05347815168206684, 0.0003574634215833009],
      [0.22764360389257654, -0.09877002176030648, 0.04480618471668478, 0.20220847163713054, 0.0017121701520766341, 0.0727499458528142, -0.13852153433580375, -0.1296224715011238, -0.07703835316052352, 0.023650632223420554, -0.05370744075984985, 0.09230136647667203, 0.14344322929953196, 0.014608942213767363, -0.05560057041773056, 0.0172084781505022],
      [0.014438339196535505, -0.09676242124641957, 0.05666583755085524, 0.04721387363825347, -0.06823889578302429, 0.04378561707272908, -0.06811662070218008, -0.08886648289173107, 0.08864087188475941, 0.016808051361563835, 0.0793264621384178, -0.10257391956477838, -0.08509979845838893, 0.02840845216616717, -0.0787620230961373, -0.030973035402173457],
      [0.030238950338837608, -0.09234833129730012, 0.020762620811507922, 0.011464571164795066, -0.11850947032051269, -0.010881254041257712, -0.03321023540120401, -0.07511482976047434, 0.16121017857605452, -0.0537413606502266, 0.09270261034278461, -0.062134737482546096, -0.04743173973688807, 0.042581742306966694, -0.014029047181516154, -0.03159840283708002],
      [0.08398164742576193, -0.06904109172062607, 0.038083196900202836, 0.0579457304260149, -0.009117989743177218, -0.004027357739399352, -0.057144529404751385, -0.14575249657454842, 0.058412217186011105, -0.11090484284364216, 0.03348446191904205, 0.023504110968444673, -0.11149580052128735, -0.004806919583554456, -0.002675694441696341, -0.06993233988355219],
      [0.17895291122052392, -0.0033261036723932474, -0.021519330577043107, -0.049431901413918906, 0.07273793194433953, 0.06445198881151439, -0.016035313919242747, -0.03703245525419239, 0.1006133292412974, -0.028986101116026022, 0.2548836898310746, -0.07218906248261851, -0.21870985792081296, 0.04859420106536663, -0.04482349359427329, -0.01653329981431069],
      [0.11501683520616111, -0.09377058770129887, 0.005684692958911375, -0.04207238544804777, 0.08080116131186325, 0.10499260616167722, -0.05053484230352654, -0.027766984550311864, 0.14404749300593941, -0.027615019462517806, 0.16311180932647185, -0.1175577513543167, -0.16226286495801798, 0.08999097015087748, 0.001285692039283969, -0.06313851771361145],
      [-0.06490518148588055, -0.10690807997436869, 0.029093208606393268, 0.12036765130056401, -0.02278022779746644, 0.05803562144304581, -0.14898651374238667, -0.0690167964015383, 0.010194211011886726, -0.09339495725052824, 0.12048107684768357, -0.03456650965313057, -0.11040091772274806, 0.019103209172543874, -0.06803484322119992, 0.011514939238423144],
      [-0.13839102446219056, -0.03616552009767642, -0.08437561142598676, 0.07930835378869779, 0.02064840390734554, -0.08114172842772685, 0.035486578295659876, 0.07953111237334899, 0.2523454214177223, 0.029647857092793203, -0.11550204250013371, -0.21381302082924802, -0.17417251596381836, -0.026792047825294627, 0.06835100339259167, -0.08200047451365432]
    ],
    "layer0.mlp_fc2": [
      [-0.0001381258494469891, -0.04752531091366944, -0.06382824924670678, -0.04775884198885163, -0.16770245105751752, -0.11987060941699043, 0.0016883294076852882, -0.17835002028715274, -0.020782853245687204, -0.03539830758044618, -0.03496421673421305, -0.10355067229931121, -0.039551677865045196, 0.002206664262586114, -0.11831234816056492, 0.01985341967299891, 0.008880448735745226, -0.012188848120052713, -0.10865587834031643, -0.0947119321773948, 0.024903065326417773, -0.10048987909242504, -0.015657067807293732, -0.12098158404223189, -0.04587979477490475, -0.08979748872020502, 0.023818637991870943, 0.037366285481150126, -0.02363430220985499, -0.06608298338826057, 0.03457957871362414, -0.06478242638317376, -0.1179891751046588, -0.029651519706299447, 0.0541166262000909, -0.06743419200469833, 0.00011764535302525117, -0.07685742471200496, -0.06837728106371083, -0.12154448291806326, -0.0841262414103853, -0.03170201450489757, -0.036477202760370246, -0.18930128238194388, -0.11608622795942686, -0.011205670010233653, -0.11779145117249303, 0.03032508032395428, -0.14043870343791484, -0.19792157860226003, -0.0022621904798631274, -0.0368887361428503, 0.15666665890133627, -0.07708783331243427, -0.03062915029036099, 0.060699814279093774, 0.0018991413443534017, 0.008496571825503365, -0.0016868551414411317, 0.09469585328656153, -0.10490622508951936, -0.08751452689567542, 0.08450549897627854, -0.19821568774832285],
      [-0.03281902512228651, 0.02438126570098932, 0.0650760385097582, 0.03835961391604377, 0.060614708581449024, 0.10801192336691134, -0.013143554107047066, 0.046879265789606425, 0.06668369927895497, -0.03754739155472803, 0.02049224055493574, 0.0759890982301535, 0.014989503603175173, -0.023073668791443253, 0.04797938017450175, -0.026579823344380884, -0.0035056792014637006, -0.006313680015963076, 0.05883702559061798, 0.061174522014252435, -0.012625675546346773, 0.15002858023554172, 0.052998438850578575, 0.08371712052784851, 0.028089965193951592, 0.04029059443274778, 0.04915852570140036, 0.017270052648073898, -0.0005903826348221989, 0.051636769178540036, 0.06959078755341613, 0.051241934830319254, 0.0760702646042797, -0.0067982381492338205, -0.02309913291845935, 0.020085835105508126, 0.02482702363320253, 0.017240953817101827, 0.09443941855838336, 0.04148663572700397, 0.06930981902749996, 0.002958311838425082, 0.00019534834405731844, 0.03385648008449335, 0.0015883918813061756, 0.017289868350534237, 0.006601070732592419, -0.0004835999635669169, 0.11029450050612835, -0.0068324919531382, 0.017822523617592165, -0.00602304593915819, 0.020666149049942028, -0.03281849289716443, -0.006941897739530865, -0.003240542025865272, 0.02113964132215293, -0.06397793730649755, 0.004143579090906245, -0.0014992739070607318, 0.010597251307966103, 0.0648985147626849, 0.05985977141355427, 0.02935136633552514],
      [-0.11475682275597145, -0.02368278784466483, -0.02129169686588139, -0.02952687549973651, -0.03912699302217948, 0.07227537202627417, 0.021050016228771916, -0.048017578493227464, 0.09320515452306535, 0.005120902481181623, 0.05173829693851322, -0.0051290016042223495, 0.07353275028224357, -0.02861626542887145, 0.055377190548370585, -0.03824324084200023, 0.06876656637428558, -0.017922537601033784, 0.09297103781375232, 0.01992719336181383, 0.010255041558106106, -0.08997757939082227, -0.01396120355979922, -0.04947804313575953, -0.04339317815477346, 0.047737135468212843, -0.030660690220469806, -0.04615032906213173, -0.005517266606972413, -0.04273682364802746, 0.03135444131425507, 0.040298633546032636, 0.09506973272222972, 0.04423955231051234, 0.04375965628025359, -0.010594172677824214, -0.008907247381750014, -0.013502903181408529, -0.04890684675301111, 0.015924326893571473, -0.05313619864223697, 0.0048378585678632595, -0.0004738737106304757, 0.06203325933280671, 0.06039259625326195, -0.03874054987914886, 0.034134456844888146, 0.04059928018023312, -0.0033860902429034665, -0.014420496424761222, -0.08693424392789613, 0.01165940980531418, -0.080821459599504, -0.07986415253764205, -0.05227850788703688, 0.02878992343421603, 0.03519460125662291, -0.051411566998669604, 0.02881059725272477, 0.02838394105429765, 0.07709524068144225, -0.1040401140522711, -0.04051785790534748, 0.07016258345967662],
      [-0.08235330629251338, -0.030182122133389336, -0.014845686028633832, 0.026399114271313088, 0.023740884168581146, -0.009762094720640074, 0.03210935734532954, -0.05269311194270654, 0.20216084851981958, -0.09011270316071887, -0.12803265579128437, 0.059754215544209094, -0.11065977634078829, -0.04781226759066079, 0.045806347821955494, -0.032648760258392744, -0.07326723737124496, 0.020196745316643144, 0.02401175523481119, 0.2326296434334184, 0.0696992323338336, 0.0012935929891084567, 0.052985830366519326, -0.040423727004241856, -0.07046894559938754, -0.05975137468493814, 0.027569797952162575, 0.011806619193900381, 0.01862146950112259, 0.02383983032699812, -0.03684593595695903, -0.05776857073107417, 0.00876572469558015, 0.07975745327801183, -0.005780836607684505, 0.0012505335525674973, 0.06637560632715857, 0.04107026007653485, 0.08281556553073681, 0.08395706073224354, 0.01669096440297526, 0.040102535242369175, 0.010988998370210168, 0.12035967639517113, 0.09001728856166828, 0.055729115682754966, 0.09226493129850576, -0.09451309897460466, -0.049340179489254794, 0.13640982807622556, 0.04503226070411812, 0.14060594495956663, -0.009291371661084439, -0.061574920613410286, -0.047612737754259234, -0.08488765409438273, 0.1449032797294163, -0.013794005640925736, -0.05438596711758106, -0.06022872202432124, 0.09061664960844025, 0.07717596117847395, -0.060175185796066476, 0.11054177760954154],
      [0.017360616684835236, -0.03927535289165843, 0.007846600333513412, 0.03188370496268309, 0.09058827730631512, 0.08420831952657283, 0.11116762199382957, 0.020788924178169858, 0.17552455210383716, -0.02982017956016665, 0.08743754172206317, 0.007359085168139504, 0.060914311399360516, 0.0208597582055209, 0.058522740016972045, 0.02192133597061129, 0.012349053762729814, 0.058657660873917154, 0.006118034127529647, 0.22541833280802887, 0.2080471871779127, 0.06890804165174802, 0.09319779566097057, 0.00016802674384396453, 0.07286464870331351, -0.01155718826220626, 0.023578500913142533, 0.19006894315766362, 0.0040443930037875496, 0.07117017821321958, 0.11727415665585265, -0.0043998002442231, 0.15296846290536542, 0.040547286364185704, -0.042309219019547886, -0.01942908081061088, 0.10905419766252604, 0.014537959142927744, 0.05929998928102146, 0.03461576252067208, 0.02388302113480597, 0.0004986951324755795, -0.04053725229644897, 0.2009308325448116, 0.08241542949416968, 0.08474264351966557, 0.057981877865826224, 0.02225592191816275, -0.014327330825928297, 0.12825276558679172, -0.07946553301905575, 0.03462717765169774, 0.09449216221347018, 0.043407736226251256, -0.02108038415665029, 0.015123028330337355, 0.20488963740054425, -0.09148101666718354, -0.01387441140872917, 0.05869924188911649, 0.07585934917440715, -0.0265798806652605, -0.0050519470874758506, 0.1570676012485628],
      [-0.014368765025650852, 0.06470581206448876, 0.08765605916854538, -0.0517317221511336, -0.0030711692979432494, 0.05160432023804908, 0.1025328488496236, 0.05698598294794015, -0.11335076885472596, -0.010905984178669522, 0.024010043204456488, -0.04282325253539361, 0.07152136247834918, 0.007399992725531406, 0.03825728881297318, 0.1167620774552892, 0.07700049969553269, -0.007612683323130866, 0.022177645142374317, -0.03702058538949018, -0.01988934631628767, -0.10124867785443802, 0.04051554577947874, -0.025156812645033316, -0.033777663540246146, 0.04200070717091978, -0.11780945978358325, 0.08113065759505574, 0.01779263086610383, -0.04223939013954864, 0.02911786691747081, -0.0650239084994776, 0.027588237215087123, -0.046532186695084674, 0.03302880395758845, -0.005696206596362134, -0.014140974011603233, -0.011952054117700495, 0.016729673799375476, -0.010505690074296371, -0.053173119907845394, -0.07275889972127002, -0.0618608128539977, 0.05452183601417876, 0.056489262139205264, -0.03252522508658571, 0.015169961695348599, 0.04197782946475508, 0.003431167352814892, -0.029661546472540008, -0.021920556717529967, 0.11680943785181674, 0.02729358639107946, -0.0372168623780164, -0.028832884950519607, 0.029704806346064157, -0.06536667254629172, -0.009542620350253527, 0.046780055243924396, -0.002569335469339541, 0.07237235953094832, -0.049569923150724414, 0.05064123808441493, 0.05187690132800083],
      [0.010796152798656707, 0.03415976032132415, 0.06685525532943817, 0.16350302719694293, 0.14629287507691924, 0.11048407773428122, 0.12694295870069455, 0.07549910876566965, 0.31510265853810626, 0.015052022238744954, 0.06636892678884443, 0.19530958774162904, 0.05488065637359964, -0.01578309121145129, 0.09172293914926281, 0.05742654627560546, -0.018079191485846833, 0.1060885032417945, 0.0676831611219719, 0.11998066714844038, 0.24000754571334876, 0.10937078966420978, 0.12017776284919264, 0.0988743625099522, 0.05674498703003398, 0.05223878047246896, 0.05862271247019818, 0.11474502290548705, 0.016895229890496122, 0.21189454243036174, 0.02671599045660151, 0.02487733744800006, 0.14602935392699565, -0.0009701449836940268, -0.048525142650262636, -0.004215943440594726, 0.1078746142640942, 0.13593715126279868, 0.15434202673860672, 0.07941991249566507, 0.13758628914934787, 0.040114978000057956, 0.08145879276324725, 0.12342316775204631, 0.08115802504122131, 0.17415302120600293, 0.1819822465695182, 0.05145430703785108, 0.124788847427334, 0.12427772246883684, 0.007135608095916261, 0.09583443509141695, 0.10674999000500958, -0.014190653413989118, 0.019372948475013533, 0.07682622208460557, 0.25494235523371356, 0.002812984855194009, -0.008060668599012716, 0.07796213520105637, 0.07295127504890477, 0.13610150104496516, 0.10130605726538439, 0.10630219491249629],
      [0.08745812808535591, 0.07965369855920149, 0.09508629702735005, 0.11871624848087599, 0.11026593698078625, 0.06813465899720296, 0.1405280377061503, 0.13267801802756804, 0.09718601967957843, 0.03970274170700434, 0.11232338686754166, 0.1466407442245778, 0.09754313018091502, 0.019247834131761895, 0.10867392040702013, -0.03393823129027941, 0.06933552330491839, 0.04677641594294065, 0.13524063106457518, 0.14994600663205254, 0.134913892122097, 0.1495934098446874, 0.049160187552545996, 0.09158778135893884, 0.082871980283846, 0.11491382763875985, -0.017683962598095543, 0.018911187781922228, 0.05200855835212658, 0.12829034062341318, -0.05414268404850433, 0.03147799128256739, 0.16410824509312008, 0.05747794978683237, -0.009337367460302953, 0.040685216508923774, 0.0008716987598689817, 0.0706836347507067, 0.14578444102271845, 0.10604327566717481, 0.1244127124765239, 0.061183303397401065, 0.09427123193909749, 0.1710010144669433, 0.10089188926881319, 0.11313198051885043, 0.06622506611474546, 0.0006222148232019906, 0.081608736800877, 0.15057578070480393, 0.015868050186809157, -0.031104541862396935, 0.007650787537728466, 0.04405984384479022, 0.03469145013043827, 0.015675510272939484, 0.07477355211509094, 0.012604210107970481, 0.039234737842970754, 0.002860239194092107, 0.08552494708847225, 0.057845813272960726, 0.018303890574742573, 0.1656982127947012],
      [-0.034487060374693, 0.03906315099478795, 0.09506995215149629, -0.03223531475605518, 0.034977804754885086, 0.0772441405975839, -0.15122689041213225, 0.07831589912135617, -0.07805883440355733, 0.019178339800203063, -0.04896596125215726, -0.0329903691315288, 0.06938478609564848, -0.01851494051376709, 0.09248758407955307, 0.095011274138563, 0.04785676559524384, 0.0008257867485312485, 0.022218324116612814, 0.06644322936676542, 0.01476672897886806, -0.13911336569530913, 0.07546914026045926, -0.03113948182857983, -0.04724289724328963, 0.04889084294954205, -0.10392875907291496, 0.004080559435280366, 0.007390887745329683, -0.025028429188134974, -0.003003916457712274, -0.025596447060051486, 0.11157152641064862, -0.04067814992223655, -0.029539308067541806, 0.04271319037483711, -0.0854344530526204, -0.028081209600646414, -0.09789806804294968, 0.01648346084159879, -0.05724151901419787, -0.04046083694689138, -0.023815832949933932, 0.10214872164214998, 0.07931569977366336, -0.05932939007696869, 0.04113132722346862, -0.09299132924563017, -0.009834275572389143, 0.03492184209268609, -0.06492071754940926, 0.06411018582946781, -0.018718655056469136, -0.05251472343133996, -0.06218400833181019, -0.0006391203289271679, 0.007215812647550753, -0.021038664251536138, 0.03601236489845353, -0.05418742908544974, -0.046977297560735924, -0.08153123746416277, -0.03309875231535459, 0.11844275364850561],
      [0.09691839904116767, 0.0069394137209774324, 0.009850475088062288, 0.04335988114551462, 0.17123039585764616, 0.09458583154651792, -0.03040913681645233, 0.12008150062179437, 0.06352345365026278, -0.01482927662633759, 0.03039325644678428, 0.06545489185234746, 0.07044809850408457, 0.07021560160181611, 0.09563345594720721, 0.10888566763344791, 0.0478146462787293, 0.02206267588144892, 0.009719008879490528, 0.08770522478942915, 0.0852301433517121, 0.14095001686447156, 0.14173164484821546, 0.0638424781105364, 0.0667730252466119, 0.04188617099913201, 0.06043621477440795, 0.09160328949962995, -0.046302038546521006, 0.0333845399114484, 0.051113312245680505, 0.0689171034646919, 0.08674632657077479, -0.035663795064770736, -0.010177651359832524, 0.08445987038258754, -0.028151228881416638, 0.04095377249190528, 0.023048334137603193, 0.09522931671552488, 0.03386827370536181, 0.03880019218955122, 0.016444655374072165, 0.10613473948589734, 0.05018525835785387, 0.015128307876385267, 0.08548289279037458, 0.029956409451782986, 0.0811959149792767, 0.11659474915886296, -0.008048966314562159, 0.07630286090660794, 0.13331859157336381, -0.005376948734624569, -0.027603361039398696, 0.008735900103703493, -0.01565981581495985, -0.014652159187993282, 0.052219713224848446, 0.032877819095979845, -0.009999967573995698, 0.07723557840668437, 0.06986616703997589, 0.09049609108338466],
      [0.08245441476931803, 0.01615265927988905, 0.06802699524749907, -0.04810986445758506, -0.1034962611776737, -0.09988594418025391, 0.07142088118332134, -0.03449266521407065, -0.1920159825461299, 0.022159184120761958, 0.123290723588407, -0.09872117211964303, 0.03456549024400117, 0.03162143002264913, -0.05004844180141314, -0.021518466176780146, 0.07934698472330935, 0.01986387637596163, -0.10127394609658326, -0.04981055616888175, -0.0652713920693427, -0.1155799090010921, -0.05858855601233202, 0.0022117702164497705, 0.056512662068944286, -0.003779443723649479, -0.08994900936515432, -0.08926090505507923, -0.00953132025264274, -0.06507691098934833, -0.045697883075341623, -0.05639823932789597, -0.0966025741678815, -0.035985807186184146, 0.017547482069406217, 0.030843174030281764, -0.058450057557680034, -0.05577447921621237, -0.06237983086398966, -0.03630297818225387, -0.040899230296922384, -0.053750451780676285, -0.05427848623126953, -0.03796251656745755, -0.026606685985513898, -0.040164904862903146, -0.13821169964526922, -0.02746636499162807, -0.04236284315505744, -0.04721627172301304, 0.018416989705155987, -0.06018899786737069, -0.0227187929916109, 0.022448716039507717, 0.03118778771471945, -0.03397410280706699, -0.11096460182327966, 0.022274361795359538, 0.035948247788844645, 0.010815761728457112, -0.03608153557316169, -0.057575578121849796, -0.0698763140064481, -0.06204739185547331],
      [0.031201407358862707, 0.05066751816192776, 0.03367558692020213, -0.04756642096847657, 0.056373374523506395, 0.04342855639536037, -0.06925075783641534, 0.04667042133911156, 0.06533292759806622, 0.010253427083893112, 0.02856267778478397, 0.01349815087707142, 0.041611238699316426, -0.019705111005385148, -0.052423847975744765, 0.08402875825121296, 0.010556367392025721, -0.01381236773723925, 0.013238764882014335, -0.02587782403109984, 0.06756281557559976, 0.12393607490038329, 0.03170048656627256, 0.02421660842331631, -0.022989138735503324, 0.06988087695987003, -0.030729663281435, 0.08331193895298099, -0.03743707423569244, -0.03803066944048091, 0.04984601709321978, -0.0006257774511376117, 0.03630490858788697, -0.03223269920875788, 0.05041539543625157, -0.01240290946987252, 0.0026759885970727647, -0.04583456679533664, 0.01076194023313083, -0.029186848906306975, -0.023877926865112947, -0.031111911395631284, -0.02829897100263387, -0.023524673485839687, -0.025744371084373434, -0.0731165242405174, 0.007173165091022998, -0.036478093135657044, 0.08644979120092633, -0.06466631589106772, 0.035830070567893745, -0.00795968649955798, 0.08902983064941658, 0.031703412740780104, 0.040669362820327966, 0.0012275819297487673, 0.04735461644926002, -0.032899606387155035, -0.03662658318113576, 0.022548811786366717, -0.03702692270984322, -0.013688674257194392, -0.01903769204463419, -0.036929196362908104],
      [-0.06102026428862721, -0.03446014171002663, 0.0038064551935731647, 0.04422123466911142, -0.025111828537655385, -0.017008539609989968, -0.054572987291066515, -0.0727840829116477, 0.2039244171421742, -0.02899825687729546, 0.06332091544566058, 0.052902297112923886, -0.03315242752125792, -0.005162116468177695, -0.08525026485320149, -0.1657270350065601, -0.02013889408355009, 0.0733280159505192, -0.06834630215393003, -0.11406475594760317, 0.12431337192716974, -0.05879822592895536, 0.010195564749872644, -0.015218772277405803, -0.007061010760027864, -0.026358233573154314, -0.041710877554481864, 0.013613207993382392, -0.05549984757512715, 0.031604727754996294, 0.030918993817162708, 0.0361288467632972, -0.11456843060862423, 0.02537585694445822, 0.10009662754826247, -0.020959906000194636, 0.09113892115014205, 0.03027072121031967, 0.021400495264110364, 0.06690295565901483, 0.010765379570123019, 0.10327750907365522, 0.02238165073562523, -0.09822203370021461, -0.00690145151489197, 0.046421383165736387, 0.09914839823009669, 0.0019137249794818317, -0.0005426307420035503, -0.007915460601310225, 0.05079437111584974, 0.11141492198603302, -0.02081215021468728, 0.049231530011921563, 0.039714987959966586, -0.04257049982700103, 0.11666149224475433, -0.0019325640047673602, -0.019308814426506015, 0.11474356254756829, 0.07681582355345093, 0.08528847999135361, -0.01945919822155315, -0.11066159619536167],
      [-0.1501453010217912, -0.08518612304150551, -0.07971257745361236, -0.05249263744573969, 0.021531698041140437, -0.09225053626271162, -0.08154739194706716, 0.04697010241635816, -0.09795466857869538, -0.0058670874375306315, -0.09121567333358102, -0.09056310648929893, -0.04466624640660294, -0.027930493541738217, -0.10582453313801042, -0.025909544280012173, -0.014075261492870481, -0.06009071724355408, 0.019023412645935458, -0.07393609814247701, -0.10351139665248839, -0.1051498453060465, -0.08021635190194078, -0.11647964181870835, -0.03578754632309844, -0.031628652627988085, -0.047255273522977044, -0.013721772294628284, -0.02825908120955899, -0.06738845052951584, 0.007643259681579859, -0.054891213747629335, 0.052440767328780294, -0.08276906906765398, -0.09816728658971935, 0.0011263965223264351, -0.13017160917561219, -0.020342410682872687, -0.10483131103590382, -0.0638997349422109, -0.08368633626533704, -0.03471930612420727, -0.0407932519449882, -0.028012166391627884, -0.060660433480899806, -0.03034980654135426, -0.057317511738920364, -0.04627799517884185, -0.10076487482012779, -0.08428845239955686, -0.14986692689700565, -0.04903070145361764, 0.1025463808208325, -0.04495252729940461, -0.037698086782513726, -0.05486768388267771, -0.059117630955530756, -0.03312149369055193, -0.015322720021928436, -0.06226275332926184, -0.11924230461607163, -0.14437360040626482, -0.026183024742725675, -0.006197670671100974],
      [0.04987043476122236, 0.08609632847548168, 0.03599741710435209, 0.04951266472720571, 0.051415595800207124, 0.03017008872248125, 0.11384714174166827, -0.007817678903462423, 0.004501551641663956, -0.004447789557171066, 0.056036768273596896, 0.07250171851005881, 0.05937205383998268, 0.0069788247813427, 0.035863813476910734, 0.03277499639486428, 0.003511940967358945, -0.0383491415378816, -0.053923677050184124, -0.03425531113067305, -0.03294328822102902, 0.23211683375383435, -0.042653008941015536, 0.11481372757252552, 0.11281673795999174, -0.014345315108607369, 0.1003977406364321, -0.0038036044284753363, -0.011990017154335142, 0.038564634019708416, -0.03850677403560758, 0.07882002862980757, -0.06895726904697629, -0.025873416707045977, 0.021235556490811158, 0.03240317854859094, -0.008799701052292684, 0.06713370204781711, 0.15010363021283882, 0.07804919652501163, 0.11189103983831783, 0.06361366212226235, 0.008889582640515212, 0.07687075149058274, -0.015207504094900536, 0.06917934945845602, 0.04163030592052917, 0.06752850410589929, 0.08017821828603156, 0.0179102819874549, -0.004017040749165596, -0.06449352141969232, -0.11020553146355666, -0.006087925691305427, 0.006661671873388635, 0.016560439133493126, -0.05712589335594854, 0.04738073698310013, 0.01232754266462972, 0.007282096657965444, 0.127805110200671, -0.028033035551472133, 0.09758726238845873, 0.024996268133539685],
      [0.05595369013493055, 0.03754363692570072, 0.013012400305260897, -0.008857114699267874, -0.1466440272279594, -0.09292622888786861, 0.0029417917829904893, -0.06411282974357406, 0.09129566959647545, 0.0069009331737636195, 0.05586934506785504, -0.006042314265822122, 0.010092144822622391, 0.03127943328478231, -0.08380090817893979, 0.10632135037625799, -0.01164629806211803, 0.07818815812468426, -0.10301055104141826, -0.17947469675495656, 0.08976903514145913, 0.07651073331499826, 0.02730046505396392, -0.010238467672522901, -0.02812495349785615, 0.03489093697116636, 0.02605823670718331, 0.09929014887973572, -0.062137677939407346, -0.00367037710085068, 0.031932636610908324, -0.0692854839920207, -0.1496609588788629, -0.028839391656692404, 0.03387861153584801, -0.04204583695572452, 0.02316168683313307, 0.0035477551343141584, 0.07319639055457064, -0.127932199075336, -0.029524763509696027, -0.06591176136876678, -0.062205926990341, -0.1526102348364356, -0.08275762333587146, -0.05284858972154579, -0.035505073997543275, 0.08245694679315312, 0.0241784504849336, -0.10258880815962826, -0.01769494798547051, -0.02737480205036478, 0.05937645688218035, 0.019978882970614103, 0.046926912858822535, -0.0261105355896388, 0.08479307092768681, 0.010363263325002616, -0.02756789473824694, 0.10578567502981431, 0.0338285409244637, 0.012194117163023063, -0.11333911151553562, -0.14578917544003175]
    ]
  }
}
